network unknown {
}
variable article_w {
    type discrete [ 3 ] { 0, 1, 2 };
}
variable atitle_char_count {
    type discrete [ 3 ] { 0, 1, 2 };
}
variable picture_count {
    type discrete [ 2 ] { 0, 1 };
}
variable subtitle_area_count {
    type discrete [ 2 ] { 0, 1 };
}
variable text_char_count_ratio {
    type discrete [ 4 ] { 0, 1, 2, 3 };
}
probability ( article_w | atitle_char_count, picture_count, subtitle_area_count, text_char_count_ratio ) {
    table 0.0, 0.0, 0.3333333333333333, 0.3333333333333333, 0.16666666666666666, 0.1, 0.0, 0.0, 0.3333333333333333, 0.3333333333333333, 0.3333333333333333, 0.3333333333333333, 0.3333333333333333, 0.3333333333333333, 0.3333333333333333, 0.3333333333333333, 0.0, 0.5, 0.3333333333333333, 0.0, 0.0, 0.0, 0.0, 0.0, 0.3333333333333333, 0.3333333333333333, 0.3333333333333333, 0.3333333333333333, 0.3333333333333333, 0.0, 0.3333333333333333, 0.3333333333333333, 0.3333333333333333, 0.3333333333333333, 0.3333333333333333, 0.3333333333333333, 0.3333333333333333, 0.0, 0.0, 0.0, 0.3333333333333333, 0.3333333333333333, 0.3333333333333333, 0.3333333333333333, 0.3333333333333333, 0.3333333333333333, 0.3333333333333333, 0.3333333333333333, 1.0, 1.0, 0.3333333333333333, 0.3333333333333333, 0.8333333333333334, 0.9, 1.0, 1.0, 0.3333333333333333, 0.3333333333333333, 0.3333333333333333, 0.3333333333333333, 0.3333333333333333, 0.3333333333333333, 0.3333333333333333, 0.3333333333333333, 1.0, 0.5, 0.3333333333333333, 1.0, 1.0, 1.0, 1.0, 1.0, 0.3333333333333333, 0.3333333333333333, 0.3333333333333333, 0.3333333333333333, 0.3333333333333333, 1.0, 0.3333333333333333, 0.3333333333333333, 0.3333333333333333, 0.3333333333333333, 0.3333333333333333, 0.3333333333333333, 0.3333333333333333, 1.0, 1.0, 0.75, 0.3333333333333333, 0.3333333333333333, 0.3333333333333333, 0.3333333333333333, 0.3333333333333333, 0.3333333333333333, 0.3333333333333333, 0.3333333333333333, 0.0, 0.0, 0.3333333333333333, 0.3333333333333333, 0.0, 0.0, 0.0, 0.0, 0.3333333333333333, 0.3333333333333333, 0.3333333333333333, 0.3333333333333333, 0.3333333333333333, 0.3333333333333333, 0.3333333333333333, 0.3333333333333333, 0.0, 0.0, 0.3333333333333333, 0.0, 0.0, 0.0, 0.0, 0.0, 0.3333333333333333, 0.3333333333333333, 0.3333333333333333, 0.3333333333333333, 0.3333333333333333, 0.0, 0.3333333333333333, 0.3333333333333333, 0.3333333333333333, 0.3333333333333333, 0.3333333333333333, 0.3333333333333333, 0.3333333333333333, 0.0, 0.0, 0.25, 0.3333333333333333, 0.3333333333333333, 0.3333333333333333, 0.3333333333333333, 0.3333333333333333, 0.3333333333333333, 0.3333333333333333, 0.3333333333333333 ;
}
probability ( atitle_char_count ) {
    table 0.4, 0.4909090909090909, 0.10909090909090909 ;
}
probability ( picture_count ) {
    table 0.9818181818181818, 0.01818181818181818 ;
}
probability ( subtitle_area_count ) {
    table 0.12727272727272726, 0.8727272727272727 ;
}
probability ( text_char_count_ratio ) {
    table 0.3090909090909091, 0.36363636363636365, 0.12727272727272726, 0.2 ;
}
