network unknown {
}
variable article_w {
    type discrete [ 3 ] { 0, 1, 2 };
}
variable atitle_char_count {
    type discrete [ 3 ] { 0, 1, 2 };
}
variable picture_count {
    type discrete [ 2 ] { 0, 1 };
}
variable subtitle_area_count {
    type discrete [ 2 ] { 0, 1 };
}
variable text_char_count_ratio {
    type discrete [ 4 ] { 0, 1, 2, 3 };
}
probability ( article_w | atitle_char_count, picture_count, subtitle_area_count, text_char_count_ratio ) {
    table 1.0, 0.0, 0.3333333333333333, 0.3333333333333333, 0.3333333333333333, 0.05263157894736842, 0.0, 0.3333333333333333, 0.3333333333333333, 0.3333333333333333, 0.3333333333333333, 0.3333333333333333, 0.3333333333333333, 0.0, 0.0, 0.0, 1.0, 0.0, 0.3333333333333333, 0.3333333333333333, 0.3333333333333333, 0.0, 0.0, 0.3333333333333333, 0.3333333333333333, 0.3333333333333333, 0.3333333333333333, 0.3333333333333333, 0.3333333333333333, 0.3333333333333333, 0.3333333333333333, 0.3333333333333333, 0.3333333333333333, 0.3333333333333333, 0.3333333333333333, 0.3333333333333333, 0.0, 0.0, 0.0, 0.3333333333333333, 0.3333333333333333, 0.3333333333333333, 0.3333333333333333, 0.3333333333333333, 0.3333333333333333, 0.3333333333333333, 0.3333333333333333, 0.3333333333333333, 0.0, 1.0, 0.3333333333333333, 0.3333333333333333, 0.6666666666666666, 0.9473684210526315, 1.0, 0.3333333333333333, 0.3333333333333333, 0.3333333333333333, 0.3333333333333333, 0.3333333333333333, 0.3333333333333333, 1.0, 1.0, 0.0, 0.0, 1.0, 0.3333333333333333, 0.3333333333333333, 0.6666666666666666, 1.0, 1.0, 0.3333333333333333, 0.3333333333333333, 0.3333333333333333, 0.3333333333333333, 0.3333333333333333, 0.3333333333333333, 0.3333333333333333, 0.3333333333333333, 0.3333333333333333, 0.3333333333333333, 0.3333333333333333, 0.3333333333333333, 0.3333333333333333, 1.0, 1.0, 1.0, 0.3333333333333333, 0.3333333333333333, 0.3333333333333333, 0.3333333333333333, 0.3333333333333333, 0.3333333333333333, 0.3333333333333333, 0.3333333333333333, 0.3333333333333333, 0.0, 0.0, 0.3333333333333333, 0.3333333333333333, 0.0, 0.0, 0.0, 0.3333333333333333, 0.3333333333333333, 0.3333333333333333, 0.3333333333333333, 0.3333333333333333, 0.3333333333333333, 0.0, 0.0, 1.0, 0.0, 0.0, 0.3333333333333333, 0.3333333333333333, 0.0, 0.0, 0.0, 0.3333333333333333, 0.3333333333333333, 0.3333333333333333, 0.3333333333333333, 0.3333333333333333, 0.3333333333333333, 0.3333333333333333, 0.3333333333333333, 0.3333333333333333, 0.3333333333333333, 0.3333333333333333, 0.3333333333333333, 0.3333333333333333, 0.0, 0.0, 0.0, 0.3333333333333333, 0.3333333333333333, 0.3333333333333333, 0.3333333333333333, 0.3333333333333333, 0.3333333333333333, 0.3333333333333333, 0.3333333333333333, 0.3333333333333333 ;
}
probability ( atitle_char_count ) {
    table 0.4318181818181818, 0.4090909090909091, 0.1590909090909091 ;
}
probability ( picture_count ) {
    table 0.9659090909090909, 0.03409090909090909 ;
}
probability ( subtitle_area_count ) {
    table 0.056818181818181816, 0.9431818181818182 ;
}
probability ( text_char_count_ratio ) {
    table 0.26136363636363635, 0.6022727272727273, 0.125, 0.011363636363636364 ;
}
