network unknown {
}
variable allpic_num {
    type discrete [ 2 ] { 0, 1 };
}
variable newstype {
    type discrete [ 3 ] { 0, 1, 2 };
}
variable picture_area {
    type discrete [ 3 ] { 0, 1, 2 };
}
variable picture_count {
    type discrete [ 2 ] { 0, 1 };
}
probability ( allpic_num ) {
    table 0.7227722772277227, 0.27722772277227725 ;
}
probability ( newstype ) {
    table 0.1485148514851485, 0.0297029702970297, 0.8217821782178217 ;
}
probability ( picture_area | allpic_num, newstype, picture_count ) {
    table 0.0, 0.3333333333333333, 0.0, 0.3333333333333333, 0.04225352112676056, 0.3333333333333333, 1.0, 0.3333333333333333, 0.0, 0.0, 0.09090909090909091, 0.0, 1.0, 0.3333333333333333, 1.0, 0.3333333333333333, 0.7605633802816901, 0.3333333333333333, 0.0, 0.3333333333333333, 0.0, 0.0, 0.7272727272727273, 1.0, 0.0, 0.3333333333333333, 0.0, 0.3333333333333333, 0.19718309859154928, 0.3333333333333333, 0.0, 0.3333333333333333, 1.0, 1.0, 0.18181818181818182, 0.0 ;
}
probability ( picture_count ) {
    table 0.9801980198019802, 0.019801980198019802 ;
}
