network unknown {
}
variable allpic_num {
    type discrete [ 2 ] { 0, 1 };
}
variable newstype {
    type discrete [ 3 ] { 0, 1, 2 };
}
variable picture_area {
    type discrete [ 3 ] { 0, 1, 2 };
}
variable picture_count {
    type discrete [ 2 ] { 0, 1 };
}
probability ( allpic_num ) {
    table 0.6363636363636364, 0.36363636363636365 ;
}
probability ( newstype ) {
    table 0.2727272727272727, 0.18181818181818182, 0.5454545454545454 ;
}
probability ( picture_area | allpic_num, newstype, picture_count ) {
    table 0.3333333333333333, 0.3333333333333333, 0.5, 0.3333333333333333, 0.0, 0.3333333333333333, 1.0, 0.5, 0.3333333333333333, 0.3333333333333333, 0.0, 0.3333333333333333, 0.3333333333333333, 0.3333333333333333, 0.5, 0.3333333333333333, 0.2, 0.3333333333333333, 0.0, 0.0, 0.3333333333333333, 0.3333333333333333, 0.0, 0.3333333333333333, 0.3333333333333333, 0.3333333333333333, 0.0, 0.3333333333333333, 0.8, 0.3333333333333333, 0.0, 0.5, 0.3333333333333333, 0.3333333333333333, 1.0, 0.3333333333333333 ;
}
probability ( picture_count ) {
    table 0.8181818181818182, 0.18181818181818182 ;
}
