network unknown {
}
variable allpic_num {
    type discrete [ 2 ] { 0, 1 };
}
variable newstype {
    type discrete [ 3 ] { 0, 1, 2 };
}
variable picture_area {
    type discrete [ 3 ] { 0, 1, 2 };
}
variable picture_count {
    type discrete [ 2 ] { 0, 1 };
}
probability ( allpic_num ) {
    table 0.7966101694915254, 0.2033898305084746 ;
}
probability ( newstype ) {
    table 0.1864406779661017, 0.01694915254237288, 0.7966101694915254 ;
}
probability ( picture_area | allpic_num, newstype, picture_count ) {
    table 0.2, 0.3333333333333333, 0.3333333333333333, 0.3333333333333333, 0.023809523809523808, 0.3333333333333333, 1.0, 0.3333333333333333, 0.0, 0.3333333333333333, 0.0, 0.3333333333333333, 0.2, 0.3333333333333333, 0.3333333333333333, 0.3333333333333333, 0.38095238095238093, 0.3333333333333333, 0.0, 0.3333333333333333, 1.0, 0.3333333333333333, 0.4, 0.3333333333333333, 0.6, 0.3333333333333333, 0.3333333333333333, 0.3333333333333333, 0.5952380952380952, 0.3333333333333333, 0.0, 0.3333333333333333, 0.0, 0.3333333333333333, 0.6, 0.3333333333333333 ;
}
probability ( picture_count ) {
    table 1.0, 0.0 ;
}
